my_cnn_1/conv2d_3/kernel:0
(5, 5, 1, 6)
[[[[ 0.03373653 -0.10842241 -0.03723191  0.075508   -0.11687537
    -0.09984764]]

  [[ 0.05609414 -0.05369163  0.06601143 -0.09596245  0.15031165
     0.15888262]]

  [[ 0.06797423  0.07225382 -0.03247924 -0.11843188 -0.10320079
    -0.17019509]]

  [[-0.20708464 -0.16849928  0.16671331 -0.04264189 -0.16741921
     0.0698009 ]]

  [[ 0.00884043 -0.06151678  0.15565203 -0.06787197  0.11319189
    -0.01614474]]]


 [[[ 0.01014099 -0.17854556  0.12384047  0.16215594  0.10362666
    -0.05956703]]

  [[ 0.10742515 -0.13786682  0.00205424  0.00365261 -0.06279245
     0.11119992]]

  [[-0.01118628  0.06271809  0.10256026 -0.20045495 -0.05584905
    -0.14890663]]

  [[-0.06664319 -0.04352194  0.17784153  0.00357405 -0.15741724
     0.09717946]]

  [[-0.26332352 -0.11103525  0.12581325  0.00134858  0.14020178
    -0.0746235 ]]]


 [[[-0.15932262  0.12180821  0.09171504  0.00696834  0.02870329
     0.05728802]]

  [[-0.07942527  0.08558863  0.16840282  0.11796385  0.02598998
    -0.00276949]]

  [[ 0.1597511  -0.20088147  0.09890572 -0.21001042 -0.01604578
    -0.09667628]]

  [[ 0.01436615  0.0861389   0.16910382  0.15294887 -0.07563362
     0.12302666]]

  [[-0.01986552  0.05782184  0.01948207 -0.03434762  0.01575403
    -0.09506364]]]


 [[[-0.19790582  0.05068882  0.00854226 -0.02337717 -0.16046497
     0.15241754]]

  [[-0.16425928 -0.21137577  0.03025553  0.10353339 -0.04973845
    -0.12677181]]

  [[-0.06369977 -0.11360262  0.11500716 -0.12553035  0.18347132
     0.04970365]]

  [[ 0.2123755  -0.10599035  0.20227277  0.1126292   0.0554072
     0.00217547]]

  [[ 0.14824618  0.00264978  0.02349161  0.06101776 -0.07488645
    -0.09952106]]]


 [[[-0.16031355  0.07226069 -0.05119681  0.01006796  0.1274429
     0.10320532]]

  [[-0.08385894  0.17966855 -0.06485728  0.06349355 -0.19206189
    -0.02881124]]

  [[-0.1953777   0.1404685   0.10847566 -0.1718845  -0.04858244
     0.02827813]]

  [[ 0.07384521  0.06076886 -0.08478503  0.08163443  0.0536268
     0.06618553]]

  [[ 0.09182101 -0.07651751  0.00406459  0.10438669 -0.16561408
    -0.18802333]]]]
my_cnn_1/conv2d_3/bias:0
(6,)
[-0.00757757 -0.06449334  0.02766559 -0.02568538  0.01655727 -0.00387947]
my_cnn_1/batch_normalization_3/gamma:0
(6,)
[1.074643   0.97585815 0.9601061  0.9744035  1.0383227  1.038254  ]
my_cnn_1/batch_normalization_3/beta:0
(6,)
[-0.09241445 -0.05491284 -0.00557451 -0.01166486 -0.05824825 -0.02241657]
my_cnn_1/conv2d_4/kernel:0
(5, 5, 6, 16)
[[[[-1.76895782e-02  6.60112302e-04  2.62901615e-02 ... -4.75219935e-02
    -6.31012321e-02  2.10614707e-02]
   [-7.20706880e-02  9.01423395e-02 -1.74990576e-02 ... -7.60713294e-02
    -1.00460246e-01 -3.66299488e-02]
   [ 1.39128398e-02 -1.14318177e-01  9.33762267e-02 ... -2.09244993e-02
    -7.30074942e-02 -1.27362698e-01]
   [-3.35719585e-02  2.94961184e-02  9.52830818e-03 ... -2.18815971e-02
    -6.43445039e-03 -9.99726802e-02]
   [ 1.61009133e-01 -2.03804877e-02 -3.18630375e-02 ...  9.57420766e-02
     9.79378670e-02 -3.77615131e-02]
   [ 2.45117466e-03 -4.36310731e-02 -9.64449421e-02 ...  1.82689503e-02
     3.16622704e-02 -8.85746181e-02]]

  [[ 4.71255668e-02 -6.30793795e-02 -9.95637402e-02 ... -3.01585998e-02
    -3.20084170e-02 -2.23158915e-02]
   [ 5.07943146e-02  1.89061705e-02  4.56683747e-02 ... -7.85560235e-02
    -3.18740085e-02 -4.59926911e-02]
   [ 8.11352730e-02  9.04008448e-02  1.02203581e-02 ...  1.72228515e-02
     2.44910102e-02 -9.16528923e-04]
   [-1.62205882e-02  5.02908230e-02 -2.45412663e-02 ... -7.31596574e-02
     3.61209363e-03 -5.84289469e-02]
   [-5.44468947e-02 -3.33462954e-02  4.73615862e-02 ... -3.15357037e-02
     1.23514362e-01 -7.36821070e-02]
   [ 1.46281952e-02  3.39188101e-03 -5.36781214e-02 ...  5.72498292e-02
     8.34965706e-02 -1.25512347e-01]]

  [[-5.99760525e-02 -7.28284717e-02 -4.00621407e-02 ... -1.25893071e-01
     1.15808234e-01  1.30724251e-01]
   [ 3.54286768e-02 -1.11693218e-02  8.44748039e-03 ... -1.92884868e-03
    -3.83880362e-02  1.15265705e-01]
   [ 1.52509008e-02  7.55121326e-03  1.47789260e-02 ... -2.01948006e-02
     1.06037771e-02 -5.85462786e-02]
   [-3.70121077e-02  8.95028710e-02 -3.82156037e-02 ... -1.04026675e-01
     1.71478949e-02  6.18796684e-02]
   [-1.89099927e-02 -5.62277958e-02 -5.21161109e-02 ... -1.10303059e-01
     3.95291150e-02 -3.70731503e-02]
   [ 8.45040306e-02 -8.21805596e-02 -3.71847935e-02 ... -4.80003245e-02
     1.19692581e-02 -1.06637236e-02]]

  [[ 4.44009006e-02 -5.07798977e-02 -1.03649862e-01 ... -1.32638565e-03
    -2.41929367e-02  7.02213123e-02]
   [ 8.84845704e-02  1.41249239e-01  9.01995599e-02 ...  4.88880500e-02
    -9.03103966e-04 -3.53448577e-02]
   [-4.66439016e-02  6.75348714e-02  8.61827210e-02 ...  7.30968267e-02
     5.86357201e-03  2.42478233e-02]
   [-1.20669855e-02 -1.33753307e-02 -1.67890650e-03 ... -5.85068502e-02
     1.22447729e-01 -4.02713083e-02]
   [-8.45192894e-02 -8.17495137e-02 -1.14047296e-01 ... -1.25381678e-01
     6.83728531e-02 -9.43541806e-03]
   [ 6.02687262e-02 -3.07806544e-02  6.41435683e-02 ...  1.34822456e-02
     1.11219630e-01  7.03821611e-03]]

  [[ 2.72912383e-02 -1.00371122e-01 -1.21355712e-01 ... -8.10206831e-02
     2.33911560e-03  4.77690883e-02]
   [-7.95996487e-02  4.73698638e-02  2.20521931e-02 ... -6.51284382e-02
    -2.76699848e-02  1.02888890e-01]
   [-1.78899206e-02  6.84137791e-02 -3.32025997e-02 ...  1.96784865e-02
     2.11522020e-02 -2.74395645e-02]
   [-1.12754051e-02 -6.20392747e-02 -4.65805419e-02 ... -1.61002520e-02
     6.28561154e-02 -3.43533456e-02]
   [ 1.93440765e-02 -7.94681907e-02  3.66632976e-02 ...  2.03429479e-02
     5.27251922e-02  2.58767605e-02]
   [ 8.42988305e-03  1.97553933e-02  7.92315304e-02 ... -6.38733134e-02
     8.52381960e-02 -7.34877810e-02]]]


 [[[ 7.40274489e-02 -1.92538071e-02  4.60712127e-02 ...  1.31879240e-01
    -3.38473124e-03  1.12547884e-02]
   [ 5.29041402e-02 -8.84083882e-02 -3.88650522e-02 ... -2.95818448e-02
    -2.87577342e-02 -8.92287493e-02]
   [ 3.96875627e-02 -8.25967416e-02  7.98975527e-02 ... -1.31268473e-03
    -5.47911972e-02 -8.68529454e-02]
   [-4.80976403e-02 -7.73462430e-02 -8.42029303e-02 ... -8.77289325e-02
     6.68301946e-03 -1.50484564e-02]
   [ 1.53091773e-01 -4.32931371e-02  1.20098097e-02 ...  2.45160405e-02
     7.77024031e-02 -7.44177625e-02]
   [ 1.19485892e-02 -1.39902174e-01 -8.55152830e-02 ...  4.87703970e-03
     8.59496891e-02  2.13392638e-02]]

  [[ 6.11507148e-02  1.62792653e-02 -4.90621291e-02 ... -6.85255975e-02
     1.08914427e-01  9.57910419e-02]
   [-6.78832382e-02  4.84866202e-02 -4.09971885e-02 ...  6.62888736e-02
     3.88191547e-04  7.26614147e-02]
   [ 7.78358895e-03 -2.57510003e-02  3.07040308e-02 ... -9.88292415e-03
     2.59407312e-02 -8.01736861e-02]
   [-1.12283640e-02  8.30271021e-02  1.18769147e-02 ...  2.16752198e-02
     1.13529950e-01  2.84295017e-03]
   [ 8.83852392e-02  4.00132798e-02 -1.28978968e-01 ... -2.52836980e-02
     5.71315549e-02  1.65108256e-02]
   [-6.93307444e-02  3.52308340e-02 -4.10120040e-02 ... -6.22162335e-02
     2.70061363e-02  2.93902420e-02]]

  [[ 9.98042971e-02  3.56750526e-02  4.90867766e-03 ... -8.75232443e-02
     5.37533946e-02 -2.99792290e-02]
   [-8.06640834e-02 -8.20836276e-02  7.19245449e-02 ...  3.87531370e-02
     4.33143713e-02  5.30372970e-02]
   [-7.91189522e-02  5.21491878e-02 -6.96594641e-02 ...  5.47753461e-03
     9.14644003e-02  1.34690972e-02]
   [ 7.36180842e-02  9.10142213e-02  7.81370793e-03 ... -1.08262964e-01
     9.67957973e-02  9.06197131e-02]
   [ 8.18019360e-02  3.03937662e-02  4.05471735e-02 ... -1.23080917e-01
     1.29513144e-01  7.68745616e-02]
   [-5.96873462e-02 -6.75808936e-02 -5.65263741e-02 ... -2.71682534e-03
    -8.61959625e-03  4.36065048e-02]]

  [[ 9.57762450e-02 -7.57429972e-02 -1.79329235e-02 ... -5.93398288e-02
     1.26875728e-01  3.37762982e-02]
   [ 8.59919488e-02  1.01525933e-04  1.77657772e-02 ... -6.23258315e-02
     1.02713304e-02 -3.00274007e-02]
   [-1.15708243e-02  2.75444686e-02  5.31441830e-02 ... -9.97990519e-02
    -5.09276427e-02  1.05343215e-01]
   [ 3.41921747e-02  2.99112638e-03 -6.92857578e-02 ...  7.60258082e-03
     3.87981161e-02 -3.57263014e-02]
   [ 1.33417211e-02 -1.11405915e-02  4.77873895e-04 ... -5.75918406e-02
     1.16571173e-01  3.94605435e-02]
   [ 4.90820073e-02  2.90225372e-02 -1.59482080e-02 ... -4.54388792e-03
     2.65465192e-02  1.04980968e-01]]

  [[ 5.64917065e-02 -9.56276581e-02 -9.95138958e-02 ... -1.00577936e-01
     2.21764799e-02  2.18113996e-02]
   [ 1.57433692e-02  7.13810250e-02 -5.08648641e-02 ...  6.17981590e-02
     6.23664586e-04  8.64282399e-02]
   [-1.89622992e-03  1.08411491e-01  5.48157766e-02 ... -1.09791100e-01
     1.69188417e-02  6.72298819e-02]
   [-5.24378307e-02 -4.04251330e-02 -3.73320617e-02 ... -4.01521549e-02
    -8.04354716e-03  7.97956586e-02]
   [ 6.95851520e-02 -4.02248167e-02 -1.26055460e-02 ... -5.78251705e-02
    -4.23579626e-02  1.15848742e-01]
   [ 1.05058104e-01  2.13021394e-02  2.01532803e-02 ... -1.54127911e-01
    -4.83031161e-02  1.73698999e-02]]]


 [[[ 5.28284684e-02  3.88472900e-02 -5.90781830e-02 ...  6.65703937e-02
     6.75362200e-02  1.35654628e-01]
   [ 2.71007256e-03  1.03649922e-01  1.47349089e-02 ... -3.07684224e-02
     1.09402485e-01  1.46123711e-02]
   [ 7.88534135e-02 -2.64940076e-02 -7.45142475e-02 ...  2.05235817e-02
     9.55574587e-02  2.91156098e-02]
   [-9.70518589e-02 -5.86022809e-02 -2.29506381e-02 ...  5.74447736e-02
     5.10071144e-02  7.59354085e-02]
   [ 1.46826938e-01 -1.31611666e-02 -5.05530909e-02 ...  1.53025985e-02
     1.28535017e-01 -3.30839008e-02]
   [-5.32920174e-02 -1.20406218e-01  1.88899767e-02 ... -5.98585606e-02
    -6.29452467e-02  3.18076015e-02]]

  [[-5.89596108e-02  9.92272347e-02  2.86645275e-02 ... -6.99164420e-02
    -5.66171110e-02  8.51597041e-02]
   [-6.17283918e-02  1.03488348e-01 -7.42954090e-02 ...  6.69298023e-02
    -4.57513668e-02  1.62030205e-01]
   [ 1.14937469e-01  1.04720861e-01  9.34613645e-02 ... -7.96928555e-02
    -3.82376239e-02  5.42447232e-02]
   [-7.40388706e-02  7.47966394e-02 -3.03645711e-02 ... -9.57350060e-03
    -3.18183680e-03  5.00108190e-02]
   [ 8.68734792e-02 -8.95683765e-02 -8.49981904e-02 ...  3.34357060e-02
     4.91020642e-02 -6.43995851e-02]
   [-1.33810952e-01 -6.62291870e-02 -2.94585489e-02 ... -3.05426922e-02
     8.03732034e-03  9.51416567e-02]]

  [[ 7.08237439e-02 -6.71622455e-02 -6.85638785e-02 ...  3.71512249e-02
    -7.02445349e-03 -1.52966855e-02]
   [ 9.78301745e-04 -8.78557488e-02  1.06036458e-02 ... -4.92921919e-02
     5.53971995e-03  4.42419238e-02]
   [-3.95526700e-02  4.04509902e-02  9.55709741e-02 ... -5.77241816e-02
    -3.56583223e-02  9.80743840e-02]
   [-4.81917895e-02  4.70224097e-02  3.93400192e-02 ... -9.39390361e-02
     2.97968462e-02  2.31901631e-02]
   [ 1.19750455e-01 -1.34035125e-01  3.40227149e-02 ... -4.04683575e-02
     4.14123423e-02 -3.49280424e-02]
   [ 6.08304255e-02  2.54954156e-02  5.54679632e-02 ... -2.27334574e-02
     3.64445858e-02  6.20739087e-02]]

  [[-4.44637351e-02 -1.43240262e-02 -5.12919538e-02 ...  1.05180144e-02
     5.67263807e-04  6.01355024e-02]
   [ 5.12164086e-02 -6.00730740e-02  2.65975762e-02 ... -1.23706916e-02
    -2.76847426e-02  5.29400036e-02]
   [-5.97253926e-02  7.46610686e-02  7.16907457e-02 ... -9.74757895e-02
    -7.38999695e-02  3.45679373e-02]
   [ 8.52161646e-02 -7.70168304e-02  2.75005661e-02 ... -8.98112580e-02
     1.11168984e-03  7.45336190e-02]
   [ 3.37003507e-02 -1.36734620e-01  7.23146945e-02 ... -3.17320190e-02
     1.65821165e-01  7.40959197e-02]
   [ 2.35777162e-02 -3.89061049e-02 -3.01837139e-02 ...  3.84651348e-02
     9.39221773e-03  1.94630888e-03]]

  [[-6.30067885e-02 -1.11405617e-02 -1.70521691e-01 ...  2.69536581e-02
     7.96460286e-02  1.34647228e-02]
   [ 3.77523564e-02 -4.56242822e-02 -7.50066936e-02 ...  7.33138248e-02
     1.33212535e-02 -2.53866166e-02]
   [ 9.14439857e-02  1.47734713e-02  1.00860588e-01 ... -4.57725041e-02
    -1.82636790e-02 -8.03159699e-02]
   [-7.07493201e-02 -1.15157895e-01 -6.75988868e-02 ... -4.82440814e-02
     1.12424176e-02 -7.66305774e-02]
   [ 8.19795504e-02 -1.53652251e-01 -1.15418337e-01 ... -7.04798773e-02
     1.49763092e-01 -4.44434062e-02]
   [-4.09423485e-02 -8.17922652e-02  2.73720901e-02 ... -1.22680187e-01
     3.55821177e-02 -9.67013165e-02]]]


 [[[-4.03307341e-02  3.91942933e-02  5.29740080e-02 ...  4.77439761e-02
     2.75070891e-02  6.79498911e-02]
   [-9.80932191e-02 -6.95210472e-02 -8.65013078e-02 ... -9.24464166e-02
     7.26133510e-02 -1.34139527e-02]
   [-9.23717394e-02  8.87743309e-02 -1.06182247e-01 ... -5.97193763e-02
    -3.36317755e-02 -2.09801681e-02]
   [-7.91312829e-02 -9.58688408e-02 -2.69746594e-02 ...  3.93928625e-02
     3.94366458e-02  1.69193670e-02]
   [-5.41595370e-02 -9.60169584e-02  2.16186047e-02 ...  1.80244055e-02
     1.58123493e-01 -1.03276661e-02]
   [-4.70179832e-03 -1.57364473e-01  6.13118336e-02 ... -7.20877349e-02
     8.89082253e-02 -2.89554223e-02]]

  [[ 7.02290088e-02 -1.65822115e-02  3.32869627e-02 ...  1.28496006e-01
     2.43224911e-02  7.24845007e-02]
   [-1.14399530e-02 -1.30734235e-01 -6.91143274e-02 ...  1.00725912e-01
     6.09748671e-03 -5.13662547e-02]
   [ 4.40523289e-02  9.88345444e-02 -1.41674671e-02 ...  1.06346458e-02
    -6.90565482e-02  8.38915855e-02]
   [-1.90045961e-04  6.60376474e-02 -6.78050816e-02 ...  8.43921155e-02
    -1.84665881e-02 -9.45964828e-02]
   [ 2.82460861e-02 -1.28414497e-01 -1.03300132e-01 ...  1.25337213e-01
     1.35152012e-01  1.10716606e-02]
   [-2.60012057e-02 -5.46683520e-02  1.22683287e-01 ... -3.69651876e-02
     9.75877605e-03 -1.71674639e-02]]

  [[-2.71397866e-02 -5.47533035e-02  2.63557478e-04 ...  1.45460621e-01
     3.31518538e-02  1.95564423e-02]
   [ 4.57189903e-02  5.14924638e-02  5.31141348e-02 ... -6.36002496e-02
    -8.04620981e-02 -5.61968088e-02]
   [ 4.51104231e-02  1.10553533e-01  1.39961779e-01 ...  8.10435191e-02
     7.71100745e-02 -4.41969484e-02]
   [ 7.78817087e-02  4.31364477e-02 -8.79168808e-02 ...  6.56528547e-02
    -7.15895183e-03  5.00861593e-02]
   [ 3.82843837e-02 -7.40975961e-02 -6.84549659e-02 ...  1.02229431e-01
     8.05557296e-02 -5.66339381e-02]
   [ 5.03117125e-03  6.75946847e-02  1.13464948e-02 ... -8.13375972e-03
     7.73101822e-02 -3.90224084e-02]]

  [[ 6.58014789e-02  1.06074559e-02 -1.53012574e-01 ...  7.40334839e-02
     2.18244120e-02 -2.21813172e-02]
   [ 9.36207827e-03 -1.09914757e-01 -2.17554979e-02 ...  7.68464804e-02
     2.83498061e-03  1.32625382e-02]
   [-2.18200833e-02 -2.82045677e-02  9.83996093e-02 ... -4.31271009e-02
     5.94072714e-02 -2.68750265e-02]
   [-1.32895932e-02 -3.65412012e-02 -1.02359951e-01 ...  7.16461986e-02
     3.88475135e-02 -6.67716339e-02]
   [ 1.81134760e-01 -9.29710343e-02  1.09137641e-03 ...  9.88395959e-02
     1.63272619e-01 -7.40671977e-02]
   [ 5.67134991e-02 -9.21508223e-02  2.33202707e-03 ...  4.71599251e-02
     4.23156694e-02 -1.20297307e-02]]

  [[-5.76571561e-02 -2.45359801e-02 -1.32754192e-01 ...  6.13989979e-02
     7.52885714e-02 -3.93357240e-02]
   [ 6.03030771e-02  7.30244294e-02 -1.37319742e-02 ...  6.29304424e-02
     5.93308248e-02  7.95966834e-02]
   [ 1.58126131e-02 -1.12615958e-01 -8.99190456e-03 ... -5.03419749e-02
     6.53260127e-02 -8.14582705e-02]
   [-4.96547148e-02  2.84413658e-02 -4.19914164e-03 ...  5.72768264e-02
    -8.26352686e-02 -6.72198460e-02]
   [-6.44444376e-02 -1.28218815e-01 -7.51862302e-02 ...  7.31623694e-02
     8.46330822e-02 -5.67232966e-02]
   [ 3.61074544e-02 -1.03654973e-01 -3.47281843e-02 ... -7.67047629e-02
     1.08642122e-02 -1.56070605e-01]]]


 [[[ 8.32325965e-02 -5.32215349e-02 -5.15801609e-02 ... -1.50460703e-02
     4.98565100e-02  2.33380813e-02]
   [-6.53957650e-02  4.58376855e-02 -6.83202296e-02 ...  7.46203065e-02
     4.77651320e-02  6.52593300e-02]
   [-1.01169348e-01 -2.85389274e-03 -3.02248802e-02 ... -6.00225702e-02
    -3.47528677e-03 -1.07101528e-02]
   [-1.80779658e-02  7.61796013e-02 -9.52380896e-02 ... -8.47081691e-02
     4.26718928e-02 -2.26668157e-02]
   [-7.67893940e-02 -9.04923379e-02  3.43983769e-02 ...  8.59560370e-02
    -6.03568507e-03 -1.17481112e-01]
   [-1.05162784e-01  6.52064532e-02 -6.69244975e-02 ...  2.97614839e-02
    -5.75343668e-02  8.45058076e-03]]

  [[ 2.48956587e-02  5.13752969e-03  2.53777839e-02 ...  9.61266905e-02
     2.63407137e-02 -4.98555079e-02]
   [-2.60890704e-02 -7.54764974e-02  6.48378395e-03 ...  6.30429834e-02
     9.24517866e-03  2.92053055e-02]
   [-7.57000297e-02 -1.02379806e-02 -6.13340028e-02 ...  2.04564501e-02
    -7.63637852e-03 -7.71390423e-02]
   [-1.31012455e-01  4.59806062e-02  4.47930731e-02 ... -4.50609103e-02
    -2.76599340e-02  5.19521907e-02]
   [-4.31219786e-02 -5.72388023e-02 -4.79622670e-02 ...  5.58944792e-02
     1.23254009e-01 -7.07308426e-02]
   [-6.64490042e-03 -1.12838848e-02  2.98559610e-02 ... -7.72441179e-02
     4.91358861e-02 -1.25324419e-02]]

  [[ 4.67853062e-02  1.18887960e-03 -1.15565203e-01 ...  1.20191298e-01
     8.39523077e-02  9.52941477e-02]
   [-6.19755201e-02 -7.70575628e-02  8.94962531e-03 ... -1.26859602e-02
     1.63138509e-02 -2.13401206e-02]
   [ 4.78642993e-02 -1.87749453e-02  1.22354329e-01 ...  6.32122979e-02
     3.57820950e-02 -7.53653944e-02]
   [-6.37216642e-02 -3.95144075e-02  6.13743812e-02 ...  1.02171963e-02
    -9.49457064e-02 -5.10370359e-02]
   [-1.54882353e-02 -1.91861704e-01 -5.83083332e-02 ...  1.21477298e-01
     1.39148816e-01  2.21419195e-03]
   [-1.42921969e-01  6.73692003e-02  5.79651669e-02 ...  2.93066036e-02
     5.76573275e-02 -9.21587572e-02]]

  [[ 8.01656842e-02 -1.00445086e-02 -6.76592067e-02 ...  1.06908686e-01
     1.34171871e-02  2.57712863e-02]
   [-6.21689484e-02  6.26411140e-02 -1.63951963e-02 ... -4.18428183e-02
     2.18600240e-02  1.29448965e-01]
   [ 9.85316038e-02  9.53571498e-02  8.09316784e-02 ... -2.28903480e-02
     5.84084876e-02 -4.75155301e-02]
   [-2.73412131e-02  9.70553309e-02  3.35927345e-02 ...  6.14272989e-02
     3.49203758e-02 -1.71591099e-02]
   [ 9.81778055e-02 -1.16511442e-01  3.41327526e-02 ...  1.07176587e-01
     9.25175175e-02 -2.75295880e-02]
   [-7.04993233e-02 -8.92827362e-02  7.65810385e-02 ... -8.51811320e-02
    -7.95153901e-02 -9.43270475e-02]]

  [[ 2.66409013e-02 -1.94571596e-02 -1.59551967e-02 ... -4.26203646e-02
     1.94709469e-02  7.30921922e-04]
   [ 1.07105039e-01 -3.99961416e-03  7.55173014e-03 ...  4.47391942e-02
     6.03178255e-02  4.53924984e-02]
   [-1.32947480e-02  2.26048045e-02 -5.65056037e-03 ...  9.26327333e-02
    -5.88823389e-03 -1.01266384e-01]
   [-4.56386991e-02 -5.39743714e-02  5.89097738e-02 ... -8.03216845e-02
     5.64033836e-02  4.83959243e-02]
   [-9.44775864e-02  2.51121465e-02 -8.20765563e-04 ...  2.82686036e-02
     1.17218405e-01 -4.60792333e-02]
   [ 2.75638290e-02  5.48161939e-03  3.73304039e-02 ... -4.40683775e-02
    -5.22512347e-02 -6.51300922e-02]]]]
my_cnn_1/conv2d_4/bias:0
(16,)
[ 0.04657662 -0.00399998  0.01113473 -0.01562509 -0.02264564 -0.01948362
  0.0271225  -0.02537179  0.01324493 -0.02263566  0.01785373  0.00587082
  0.00864803  0.02713655 -0.0025139  -0.01203809]
my_cnn_1/batch_normalization_4/gamma:0
(16,)
[0.936117   0.9866612  0.9781438  0.89392275 1.0519198  1.0123987
 0.99216473 1.050834   1.0235214  0.99884    1.0404592  0.9781552
 0.93190205 1.0217215  0.92014664 1.0120764 ]
my_cnn_1/batch_normalization_4/beta:0
(16,)
[-0.0169952  -0.08901368 -0.04172595 -0.00040049 -0.06438497 -0.05859014
 -0.01229984 -0.07172584 -0.08754183 -0.04585412 -0.0397502   0.00169226
  0.00437916 -0.04494198  0.00281069 -0.03842573]
my_cnn_1/conv2d_5/kernel:0
(3, 3, 16, 64)
[[[[ 5.85949011e-02 -3.52204219e-02 -3.10830306e-02 ...  3.11167259e-03
     4.28742841e-02  1.75106693e-02]
   [ 1.36514278e-02  3.36110592e-02 -4.69896495e-02 ... -5.14043458e-02
    -7.01622441e-02 -2.75750132e-03]
   [ 1.00798123e-01 -6.59089759e-02  1.99383926e-02 ... -4.53011952e-02
     1.05637193e-01 -1.50048202e-02]
   ...
   [ 4.43030894e-02  1.51616950e-02 -4.04147469e-02 ... -1.91483106e-02
    -8.39204341e-02 -8.60782936e-02]
   [ 9.26904157e-02 -9.64179710e-02 -3.43986228e-02 ...  8.63678455e-02
    -4.86846119e-02  4.01879475e-02]
   [-2.60449350e-02  2.20160037e-02 -4.76973020e-02 ...  9.92189646e-02
    -2.18749307e-02 -3.35196592e-02]]

  [[-4.93764430e-02  7.45145455e-02 -1.35697061e-02 ...  6.31790161e-02
    -5.22491969e-02  3.10337991e-02]
   [-4.87864949e-02  4.33552712e-02 -1.45623379e-03 ... -6.89811725e-03
    -7.83548877e-02  7.20069259e-02]
   [-9.48979482e-02  4.67265919e-02 -3.06465197e-02 ...  5.48050441e-02
    -5.39295748e-02 -5.36358058e-02]
   ...
   [-4.99185920e-02  7.45597715e-03  3.32839936e-02 ...  1.12853777e-02
    -1.00987695e-01 -4.30107955e-03]
   [ 1.00272097e-01 -9.99379605e-02 -1.05130598e-01 ... -1.72390242e-03
     1.38230193e-02 -2.33363803e-03]
   [-1.11280233e-01 -2.58193482e-02 -2.66443025e-02 ...  1.36931762e-01
    -1.33119076e-01  2.12206841e-02]]

  [[ 3.31939682e-02 -9.79741197e-03 -5.27302027e-02 ... -4.08240827e-03
    -4.59737033e-02  1.47755211e-02]
   [ 5.54423733e-03 -5.64125627e-02 -9.45046172e-02 ...  1.04181036e-01
    -8.58407021e-02  4.60865013e-02]
   [-6.55002743e-02 -3.45689952e-02  1.18524116e-03 ...  8.29435065e-02
    -9.60365287e-05 -7.20462352e-02]
   ...
   [-4.29759957e-02 -7.24735335e-02  5.18372655e-02 ...  4.31338325e-02
    -4.39738072e-02 -1.06073938e-01]
   [ 3.82735580e-02 -8.53700638e-02 -5.61924502e-02 ... -4.00499478e-02
     2.16775876e-03  9.59639251e-03]
   [ 6.96785450e-02  3.56129594e-02  1.51900556e-02 ...  3.10628973e-02
    -9.67980921e-02 -2.41713934e-02]]]


 [[[ 4.16210182e-02 -9.74156410e-02  2.21763887e-02 ... -8.51199031e-02
    -3.71505357e-02 -1.07134461e-01]
   [ 3.64425704e-02 -6.08327426e-02  3.32665592e-02 ... -5.09170741e-02
     5.29165147e-03  7.86206201e-02]
   [ 6.45947307e-02 -3.06307012e-03  6.68360889e-02 ... -3.21819000e-02
    -1.79937594e-02  1.02683594e-02]
   ...
   [ 7.06210639e-03  1.06995724e-01 -4.79377341e-03 ...  3.79161872e-02
    -9.05824155e-02  1.20031506e-01]
   [-1.66038387e-02 -8.99352059e-02 -2.91164126e-02 ... -5.65165281e-02
    -3.30356136e-02 -4.92388085e-02]
   [-1.48510979e-02 -9.17287096e-02 -2.56897099e-02 ...  6.03100359e-02
    -1.86948124e-02 -1.09993689e-01]]

  [[ 7.78500214e-02 -4.58161049e-02 -5.96586503e-02 ... -5.98922856e-02
     9.34689865e-02 -1.08771054e-02]
   [ 1.29016181e-02 -3.39305587e-02  1.23075377e-02 ...  7.19046444e-02
     4.10118550e-02  6.19167425e-02]
   [-3.99805512e-03 -5.06278835e-02  5.28054778e-04 ...  3.26693021e-02
     1.37339428e-01 -3.51939537e-02]
   ...
   [ 7.05938041e-02  2.03338917e-02 -1.54320914e-02 ... -4.19847295e-03
    -9.92419943e-02  1.03829622e-01]
   [ 2.41112560e-02 -6.43065721e-02  4.91454676e-02 ... -8.77995044e-02
     6.34739995e-02 -6.85630180e-03]
   [-1.27241194e-01 -9.42171440e-02 -1.09296255e-01 ... -8.09734762e-02
    -4.59161550e-02  5.57513237e-02]]

  [[ 1.35637086e-03  3.17560472e-02 -4.00594361e-02 ... -5.13174795e-02
    -3.31289433e-02  2.96305194e-02]
   [-2.63380222e-02  4.99583296e-02 -1.80220045e-02 ...  5.53139374e-02
    -5.03831655e-02  1.09598115e-01]
   [-5.43021187e-02 -7.34752864e-02  2.36985963e-02 ... -4.13736664e-02
     6.71096072e-02 -9.94977914e-03]
   ...
   [ 5.99697158e-02  1.33515850e-01 -1.02191679e-02 ...  1.24128014e-01
     3.01142223e-02  5.66173345e-02]
   [ 1.15118530e-02 -3.59914601e-02 -7.89608657e-02 ... -4.46521714e-02
    -7.10028503e-03  3.94011475e-02]
   [-5.55004030e-02  1.03695318e-02 -5.64704724e-02 ... -2.72680577e-02
    -7.34399632e-02  5.75325005e-02]]]


 [[[-1.76177248e-02 -7.10859299e-02  5.96543364e-02 ...  1.31875044e-02
    -3.66192311e-02 -6.90468401e-03]
   [ 4.24825549e-02 -6.88467696e-02 -6.23875968e-02 ... -5.58164194e-02
     3.98738980e-02  6.72705993e-02]
   [ 6.10493682e-02  6.56401515e-02  8.69683400e-02 ... -6.23557009e-02
     2.65870355e-02 -6.76120119e-03]
   ...
   [-6.50103390e-02  1.19817562e-01 -6.39401674e-02 ... -2.73329094e-02
    -1.00346327e-01  7.70895332e-02]
   [ 7.52699301e-02 -6.34256052e-03 -6.46311864e-02 ... -3.84605713e-02
     5.13642691e-02  2.36594658e-02]
   [-1.10156685e-01 -1.65851135e-02  1.65660121e-02 ... -7.96185527e-03
    -3.95335816e-02 -2.34293696e-02]]

  [[-4.00884748e-02 -3.10347900e-02 -5.81035875e-02 ...  1.57578960e-02
     7.31389523e-02  2.31204014e-02]
   [ 4.52003069e-02  2.18757894e-02  1.96731091e-02 ... -1.32856965e-02
    -5.45395985e-02  1.09750807e-01]
   [ 6.37338683e-02  3.40014100e-02  1.06803179e-01 ... -5.08174002e-02
     9.71762910e-02 -3.28400172e-03]
   ...
   [-4.38961759e-02  1.49141327e-01  7.16584250e-02 ...  7.84345269e-02
    -7.10781291e-02 -4.45259139e-02]
   [ 1.06952496e-01 -7.55539760e-02 -3.12079620e-02 ...  5.22997677e-02
     6.52464256e-02 -1.33513454e-02]
   [-9.79362652e-02 -7.41750794e-03 -4.57657576e-02 ... -8.68119823e-04
     1.13675389e-02  2.34222896e-02]]

  [[-3.68368370e-03  9.11803320e-02 -5.04880771e-02 ...  1.23871313e-02
     6.53983131e-02 -3.47722210e-02]
   [ 1.05148610e-02  7.46195167e-02 -1.96025148e-02 ... -7.96787161e-03
     3.31591628e-02 -1.77913606e-02]
   [-6.60558492e-02 -3.73162590e-02  8.96362960e-02 ... -5.57604283e-02
     1.28183529e-01 -2.77092475e-02]
   ...
   [-5.94426766e-02  2.19083000e-02  3.18856277e-02 ...  7.71958306e-02
    -4.81925271e-02 -5.57331815e-02]
   [ 9.02902242e-03  3.21807861e-02 -2.01293756e-03 ...  9.76741593e-03
    -6.65621832e-03  5.71123548e-02]
   [-1.55763388e-01  5.21377809e-02 -4.26494814e-02 ...  9.36672464e-03
    -4.24766261e-03  7.63863623e-02]]]]
my_cnn_1/conv2d_5/bias:0
(64,)
[-1.2051005e-04 -3.0519452e-03 -1.7582813e-03 -1.2185440e-03
  4.0240074e-03  6.2464859e-04  1.9193921e-03  9.7281375e-04
 -1.8314053e-03 -9.8906178e-04 -5.5396435e-05 -1.2351712e-03
  6.7446512e-05  1.4394833e-04 -9.6791497e-05 -8.0152490e-04
 -1.7868503e-03 -1.6483427e-03 -1.2462159e-03 -1.5177712e-03
  1.5991430e-04 -1.0650873e-03  2.2034498e-03 -2.1605442e-04
  3.7636864e-03  8.2011698e-05  2.5249459e-03  2.1546455e-03
 -4.4479431e-03 -2.8135108e-03 -2.7256692e-03 -8.3091589e-05
 -1.1844106e-04 -2.1152417e-03  7.4392988e-04 -8.7068020e-04
  2.4596276e-03  9.3119667e-04  7.4095547e-04 -9.1739983e-04
  1.7914301e-03 -7.5394195e-04  1.9782397e-03 -8.3155604e-04
 -1.2050295e-03 -1.0927868e-03  3.9869365e-03  1.6268207e-03
 -6.1264919e-04  2.8827923e-04  2.3765373e-03 -2.6200181e-03
 -1.8589830e-03  2.0580809e-04  3.2724973e-03 -3.7675577e-03
 -5.5603537e-04  3.1705400e-05  2.2800879e-03 -7.7322550e-04
 -8.4423982e-06  3.0167203e-03  4.1981114e-04  2.7233949e-03]
my_cnn_1/batch_normalization_5/gamma:0
(64,)
[1.0005128  0.99862576 1.0154876  0.98195064 0.9930506  1.0013133
 1.0231938  0.9776703  1.0322509  0.97763723 1.001142   0.98607445
 0.991135   1.0181298  0.9987418  0.993565   1.0108265  1.0001317
 1.0389384  0.9989036  0.97529095 0.9999321  1.0213681  1.0021896
 1.0119648  0.99157035 0.97591084 1.0138341  0.99247074 0.98751503
 1.031112   0.9841874  1.000831   1.0244056  1.0025916  0.97679913
 0.9976799  0.9741306  0.9857746  0.9876297  1.0101528  1.0238041
 1.008657   0.97854793 1.0122651  1.0261462  1.0176069  0.972844
 0.9883824  0.97911525 0.9883703  1.021146   1.0065113  1.0106163
 1.0133556  1.0145366  0.98329586 1.0154577  0.977344   1.0059894
 1.0048975  1.0031294  1.0157247  1.0083754 ]
my_cnn_1/batch_normalization_5/beta:0
(64,)
[-0.00250891 -0.03342065 -0.00405827 -0.03457531 -0.03486145 -0.03241111
 -0.01215432 -0.04122325 -0.0047484  -0.05081523 -0.04566068 -0.03912899
 -0.03868774 -0.01499578 -0.00747645 -0.00388092 -0.02626765 -0.0314966
 -0.01667493 -0.00486319 -0.03064456 -0.03644669 -0.02285128 -0.03189921
 -0.00024614 -0.03815273 -0.03388852 -0.00849907 -0.02755143 -0.03405153
  0.00758078 -0.06630043 -0.03416364  0.0060079  -0.01200285 -0.03436547
 -0.02924571 -0.04270963 -0.04986163 -0.03950626 -0.00770112 -0.01633699
 -0.00306881 -0.0343442  -0.00921644  0.00702387  0.00931265 -0.03075375
 -0.03411942 -0.03755867 -0.03576667  0.00442135 -0.00942233 -0.00820518
 -0.03174135 -0.03760444 -0.03925362  0.00522872 -0.05154214 -0.00505934
 -0.03048897 -0.02488449  0.00278869 -0.03656927]
my_cnn_1/dense_2/kernel:0
(4096, 4096)
[[-0.01352011 -0.02279959 -0.00184225 ... -0.01649131 -0.01270853
   0.0061306 ]
 [ 0.01922496 -0.03071794 -0.02351219 ...  0.01387487  0.00234075
  -0.00710506]
 [ 0.01827012  0.00626643  0.01959666 ... -0.01483114 -0.02248746
   0.01230701]
 ...
 [ 0.01074293 -0.02612999 -0.02089666 ... -0.02047442  0.02283203
  -0.00165253]
 [-0.007482    0.00516468 -0.02517422 ... -0.01278385 -0.00844924
   0.01759515]
 [-0.00642542  0.01644181 -0.00370567 ...  0.00280779  0.01902876
  -0.00718518]]
my_cnn_1/dense_2/bias:0
(4096,)
[-0.00533549 -0.0058297  -0.00522979 ... -0.00456965 -0.00133499
 -0.00636402]
my_cnn_1/dense_3/kernel:0
(4096, 10)
[[ 0.03901452 -0.01019571  0.00476766 ... -0.02470723  0.02320601
   0.03038731]
 [ 0.00079027  0.00548825 -0.03253406 ...  0.01863386  0.04328579
   0.01524272]
 [ 0.01094007  0.02241352  0.00378501 ... -0.00693293 -0.02193027
  -0.01232315]
 ...
 [-0.00081808 -0.01594264  0.00271889 ... -0.0302525  -0.00783366
   0.01018644]
 [ 0.02210791 -0.01355483  0.01429855 ...  0.003435   -0.0104833
   0.00386227]
 [-0.00164269 -0.00121193 -0.0123423  ... -0.00862421  0.01233269
  -0.02873212]]
my_cnn_1/dense_3/bias:0
(10,)
[ 0.00083227 -0.00553923  0.01933007 -0.00225248 -0.00362163  0.01532506
  0.00193848 -0.01595581 -0.00843386  0.00501949]
